digraph Tree {
node [shape=box, style="filled, rounded", color="black", fontname="helvetica"] ;
edge [fontname="helvetica"] ;
0 [label=<x<SUB>2</SUB> &le; 110.035<br/>gini = 0.603<br/>samples = 474<br/>value = [[318, 156, 0, 0, 0]<br/>[54, 54, 96, 108, 162]]>, fillcolor="#fefbf8"] ;
1 [label=<x<SUB>2</SUB> &le; 16.855<br/>gini = 0.599<br/>samples = 441<br/>value = [[285, 156, 0, 0, 0]<br/>[51, 24, 96, 108, 162]]>, fillcolor="#fefaf7"] ;
0 -> 1 [labeldistance=2.5, labelangle=45, headlabel="True"] ;
2 [label=<x<SUB>1</SUB> &le; 247.64<br/>gini = 0.559<br/>samples = 86<br/>value = [[34, 52, 0, 0, 0]<br/>[0, 0, 40, 24, 22]]>, fillcolor="#fcf2ea"] ;
1 -> 2 ;
3 [label=<x<SUB>3</SUB> &le; 1.5<br/>gini = 0.32<br/>samples = 13<br/>value = [[11, 2, 0, 0, 0]<br/>[0, 0, 10, 2, 1]]>, fillcolor="#f2c19e"] ;
2 -> 3 ;
4 [label=<x<SUB>1</SUB> &le; 70.425<br/>gini = 0.188<br/>samples = 8<br/>value = [[6, 2, 0, 0, 0]<br/>[0, 0, 8, 0, 0]]>, fillcolor="#eda774"] ;
3 -> 4 ;
5 [label=<gini = 0.0<br/>samples = 1<br/>value = [[0, 1, 0, 0, 0]<br/>[0, 0, 1, 0, 0]]>, fillcolor="#e58139"] ;
4 -> 5 ;
6 [label=<x<SUB>2</SUB> &le; 16.41<br/>gini = 0.122<br/>samples = 7<br/>value = [[6, 1, 0, 0, 0]<br/>[0, 0, 7, 0, 0]]>, fillcolor="#ea9a60"] ;
4 -> 6 ;
7 [label=<gini = 0.0<br/>samples = 6<br/>value = [[6, 0, 0, 0, 0]<br/>[0, 0, 6, 0, 0]]>, fillcolor="#e58139"] ;
6 -> 7 ;
8 [label=<gini = 0.0<br/>samples = 1<br/>value = [[0, 1, 0, 0, 0]<br/>[0, 0, 1, 0, 0]]>, fillcolor="#e58139"] ;
6 -> 8 ;
9 [label=<x<SUB>2</SUB> &le; 9.46<br/>gini = 0.32<br/>samples = 5<br/>value = [[5, 0, 0, 0, 0]<br/>[0, 0, 2, 2, 1]]>, fillcolor="#f2c29e"] ;
3 -> 9 ;
10 [label=<gini = 0.0<br/>samples = 2<br/>value = [[2, 0, 0, 0, 0]<br/>[0, 0, 2, 0, 0]]>, fillcolor="#e58139"] ;
9 -> 10 ;
11 [label=<x<SUB>1</SUB> &le; 197.785<br/>gini = 0.222<br/>samples = 3<br/>value = [[3, 0, 0, 0, 0]<br/>[0, 0, 0, 2, 1]]>, fillcolor="#eeae7f"] ;
9 -> 11 ;
12 [label=<gini = 0.0<br/>samples = 2<br/>value = [[2, 0, 0, 0, 0]<br/>[0, 0, 0, 2, 0]]>, fillcolor="#e58139"] ;
11 -> 12 ;
13 [label=<gini = 0.0<br/>samples = 1<br/>value = [[1, 0, 0, 0, 0]<br/>[0, 0, 0, 0, 1]]>, fillcolor="#e58139"] ;
11 -> 13 ;
14 [label=<x<SUB>2</SUB> &le; 7.295<br/>gini = 0.545<br/>samples = 73<br/>value = [[23, 50, 0, 0, 0]<br/>[0, 0, 30, 22, 21]]>, fillcolor="#fcefe6"] ;
2 -> 14 ;
15 [label=<x<SUB>0</SUB> &le; 5.0<br/>gini = 0.485<br/>samples = 32<br/>value = [[14, 18, 0, 0, 0]<br/>[0, 0, 22, 5, 5]]>, fillcolor="#f9e3d3"] ;
14 -> 15 ;
16 [label=<x<SUB>2</SUB> &le; 6.795<br/>gini = 0.485<br/>samples = 19<br/>value = [[4, 15, 0, 0, 0]<br/>[0, 0, 9, 5, 5]]>, fillcolor="#f9e3d3"] ;
15 -> 16 ;
17 [label=<x<SUB>1</SUB> &le; 612.965<br/>gini = 0.441<br/>samples = 16<br/>value = [[2, 14, 0, 0, 0]<br/>[0, 0, 6, 5, 5]]>, fillcolor="#f7dac5"] ;
16 -> 17 ;
18 [label=<x<SUB>2</SUB> &le; 6.645<br/>gini = 0.456<br/>samples = 13<br/>value = [[2, 11, 0, 0, 0]<br/>[0, 0, 3, 5, 5]]>, fillcolor="#f8ddc9"] ;
17 -> 18 ;
19 [label=<x<SUB>2</SUB> &le; 3.86<br/>gini = 0.471<br/>samples = 11<br/>value = [[2, 9, 0, 0, 0]<br/>[0, 0, 3, 5, 3]]>, fillcolor="#f9e0ce"] ;
18 -> 19 ;
20 [label=<x<SUB>2</SUB> &le; 3.595<br/>gini = 0.25<br/>samples = 6<br/>value = [[0, 6, 0, 0, 0]<br/>[0, 0, 0, 3, 3]]>, fillcolor="#efb388"] ;
19 -> 20 ;
21 [label=<x<SUB>2</SUB> &le; 2.74<br/>gini = 0.188<br/>samples = 4<br/>value = [[0, 4, 0, 0, 0]<br/>[0, 0, 0, 3, 1]]>, fillcolor="#eda774"] ;
20 -> 21 ;
22 [label=<x<SUB>1</SUB> &le; 524.36<br/>gini = 0.25<br/>samples = 2<br/>value = [[0, 2, 0, 0, 0]<br/>[0, 0, 0, 1, 1]]>, fillcolor="#efb388"] ;
21 -> 22 ;
23 [label=<gini = 0.0<br/>samples = 1<br/>value = [[0, 1, 0, 0, 0]<br/>[0, 0, 0, 0, 1]]>, fillcolor="#e58139"] ;
22 -> 23 ;
24 [label=<gini = 0.0<br/>samples = 1<br/>value = [[0, 1, 0, 0, 0]<br/>[0, 0, 0, 1, 0]]>, fillcolor="#e58139"] ;
22 -> 24 ;
25 [label=<gini = 0.0<br/>samples = 2<br/>value = [[0, 2, 0, 0, 0]<br/>[0, 0, 0, 2, 0]]>, fillcolor="#e58139"] ;
21 -> 25 ;
26 [label=<gini = 0.0<br/>samples = 2<br/>value = [[0, 2, 0, 0, 0]<br/>[0, 0, 0, 0, 2]]>, fillcolor="#e58139"] ;
20 -> 26 ;
27 [label=<x<SUB>2</SUB> &le; 6.0<br/>gini = 0.48<br/>samples = 5<br/>value = [[2, 3, 0, 0, 0]<br/>[0, 0, 3, 2, 0]]>, fillcolor="#f9e2d1"] ;
19 -> 27 ;
28 [label=<x<SUB>0</SUB> &le; 1.5<br/>gini = 0.222<br/>samples = 3<br/>value = [[2, 1, 0, 0, 0]<br/>[0, 0, 3, 0, 0]]>, fillcolor="#eeae7f"] ;
27 -> 28 ;
29 [label=<gini = 0.0<br/>samples = 1<br/>value = [[0, 1, 0, 0, 0]<br/>[0, 0, 1, 0, 0]]>, fillcolor="#e58139"] ;
28 -> 29 ;
30 [label=<gini = 0.0<br/>samples = 2<br/>value = [[2, 0, 0, 0, 0]<br/>[0, 0, 2, 0, 0]]>, fillcolor="#e58139"] ;
28 -> 30 ;
31 [label=<gini = 0.0<br/>samples = 2<br/>value = [[0, 2, 0, 0, 0]<br/>[0, 0, 0, 2, 0]]>, fillcolor="#e58139"] ;
27 -> 31 ;
32 [label=<gini = 0.0<br/>samples = 2<br/>value = [[0, 2, 0, 0, 0]<br/>[0, 0, 0, 0, 2]]>, fillcolor="#e58139"] ;
18 -> 32 ;
33 [label=<gini = 0.0<br/>samples = 3<br/>value = [[0, 3, 0, 0, 0]<br/>[0, 0, 3, 0, 0]]>, fillcolor="#e58139"] ;
17 -> 33 ;
34 [label=<x<SUB>1</SUB> &le; 429.72<br/>gini = 0.222<br/>samples = 3<br/>value = [[2, 1, 0, 0, 0]<br/>[0, 0, 3, 0, 0]]>, fillcolor="#eeae7f"] ;
16 -> 34 ;
35 [label=<gini = 0.0<br/>samples = 1<br/>value = [[0, 1, 0, 0, 0]<br/>[0, 0, 1, 0, 0]]>, fillcolor="#e58139"] ;
34 -> 35 ;
36 [label=<gini = 0.0<br/>samples = 2<br/>value = [[2, 0, 0, 0, 0]<br/>[0, 0, 2, 0, 0]]>, fillcolor="#e58139"] ;
34 -> 36 ;
37 [label=<x<SUB>1</SUB> &le; 2970.645<br/>gini = 0.178<br/>samples = 13<br/>value = [[10, 3, 0, 0, 0]<br/>[0, 0, 13, 0, 0]]>, fillcolor="#eca571"] ;
15 -> 37 ;
38 [label=<x<SUB>1</SUB> &le; 859.385<br/>gini = 0.245<br/>samples = 7<br/>value = [[4, 3, 0, 0, 0]<br/>[0, 0, 7, 0, 0]]>, fillcolor="#efb287"] ;
37 -> 38 ;
39 [label=<gini = 0.0<br/>samples = 2<br/>value = [[2, 0, 0, 0, 0]<br/>[0, 0, 2, 0, 0]]>, fillcolor="#e58139"] ;
38 -> 39 ;
40 [label=<x<SUB>2</SUB> &le; 6.59<br/>gini = 0.24<br/>samples = 5<br/>value = [[2, 3, 0, 0, 0]<br/>[0, 0, 5, 0, 0]]>, fillcolor="#efb185"] ;
38 -> 40 ;
41 [label=<x<SUB>1</SUB> &le; 1589.09<br/>gini = 0.222<br/>samples = 3<br/>value = [[2, 1, 0, 0, 0]<br/>[0, 0, 3, 0, 0]]>, fillcolor="#eeae7f"] ;
40 -> 41 ;
42 [label=<gini = 0.0<br/>samples = 1<br/>value = [[1, 0, 0, 0, 0]<br/>[0, 0, 1, 0, 0]]>, fillcolor="#e58139"] ;
41 -> 42 ;
43 [label=<x<SUB>1</SUB> &le; 1657.545<br/>gini = 0.25<br/>samples = 2<br/>value = [[1, 1, 0, 0, 0]<br/>[0, 0, 2, 0, 0]]>, fillcolor="#efb388"] ;
41 -> 43 ;
44 [label=<gini = 0.0<br/>samples = 1<br/>value = [[0, 1, 0, 0, 0]<br/>[0, 0, 1, 0, 0]]>, fillcolor="#e58139"] ;
43 -> 44 ;
45 [label=<gini = 0.0<br/>samples = 1<br/>value = [[1, 0, 0, 0, 0]<br/>[0, 0, 1, 0, 0]]>, fillcolor="#e58139"] ;
43 -> 45 ;
46 [label=<gini = 0.0<br/>samples = 2<br/>value = [[0, 2, 0, 0, 0]<br/>[0, 0, 2, 0, 0]]>, fillcolor="#e58139"] ;
40 -> 46 ;
47 [label=<gini = 0.0<br/>samples = 6<br/>value = [[6, 0, 0, 0, 0]<br/>[0, 0, 6, 0, 0]]>, fillcolor="#e58139"] ;
37 -> 47 ;
48 [label=<x<SUB>1</SUB> &le; 311.515<br/>gini = 0.49<br/>samples = 41<br/>value = [[9, 32, 0, 0, 0]<br/>[0, 0, 8, 17, 16]]>, fillcolor="#f9e4d4"] ;
14 -> 48 ;
49 [label=<x<SUB>2</SUB> &le; 15.195<br/>gini = 0.222<br/>samples = 3<br/>value = [[3, 0, 0, 0, 0]<br/>[0, 0, 0, 2, 1]]>, fillcolor="#eeae7f"] ;
48 -> 49 ;
50 [label=<gini = 0.0<br/>samples = 2<br/>value = [[2, 0, 0, 0, 0]<br/>[0, 0, 0, 2, 0]]>, fillcolor="#e58139"] ;
49 -> 50 ;
51 [label=<gini = 0.0<br/>samples = 1<br/>value = [[1, 0, 0, 0, 0]<br/>[0, 0, 0, 0, 1]]>, fillcolor="#e58139"] ;
49 -> 51 ;
52 [label=<x<SUB>2</SUB> &le; 14.465<br/>gini = 0.455<br/>samples = 38<br/>value = [[6, 32, 0, 0, 0]<br/>[0, 0, 8, 15, 15]]>, fillcolor="#f8ddc9"] ;
48 -> 52 ;
53 [label=<x<SUB>2</SUB> &le; 13.15<br/>gini = 0.398<br/>samples = 26<br/>value = [[3, 23, 0, 0, 0]<br/>[0, 0, 4, 14, 8]]>, fillcolor="#f6d1b7"] ;
52 -> 53 ;
54 [label=<x<SUB>1</SUB> &le; 339.93<br/>gini = 0.31<br/>samples = 19<br/>value = [[0, 19, 0, 0, 0]<br/>[0, 0, 3, 8, 8]]>, fillcolor="#f2c09b"] ;
53 -> 54 ;
55 [label=<gini = 0.0<br/>samples = 1<br/>value = [[0, 1, 0, 0, 0]<br/>[0, 0, 1, 0, 0]]>, fillcolor="#e58139"] ;
54 -> 55 ;
56 [label=<x<SUB>2</SUB> &le; 9.205<br/>gini = 0.296<br/>samples = 18<br/>value = [[0, 18, 0, 0, 0]<br/>[0, 0, 2, 8, 8]]>, fillcolor="#f1bd97"] ;
54 -> 56 ;
57 [label=<x<SUB>2</SUB> &le; 8.99<br/>gini = 0.296<br/>samples = 9<br/>value = [[0, 9, 0, 0, 0]<br/>[0, 0, 2, 5, 2]]>, fillcolor="#f1bd97"] ;
56 -> 57 ;
58 [label=<x<SUB>0</SUB> &le; 25.0<br/>gini = 0.333<br/>samples = 6<br/>value = [[0, 6, 0, 0, 0]<br/>[0, 0, 2, 2, 2]]>, fillcolor="#f3c4a3"] ;
57 -> 58 ;
59 [label=<x<SUB>1</SUB> &le; 1342.125<br/>gini = 0.25<br/>samples = 4<br/>value = [[0, 4, 0, 0, 0]<br/>[0, 0, 0, 2, 2]]>, fillcolor="#efb388"] ;
58 -> 59 ;
60 [label=<gini = 0.0<br/>samples = 1<br/>value = [[0, 1, 0, 0, 0]<br/>[0, 0, 0, 0, 1]]>, fillcolor="#e58139"] ;
59 -> 60 ;
61 [label=<x<SUB>2</SUB> &le; 8.785<br/>gini = 0.222<br/>samples = 3<br/>value = [[0, 3, 0, 0, 0]<br/>[0, 0, 0, 2, 1]]>, fillcolor="#eeae7f"] ;
59 -> 61 ;
62 [label=<gini = 0.0<br/>samples = 2<br/>value = [[0, 2, 0, 0, 0]<br/>[0, 0, 0, 2, 0]]>, fillcolor="#e58139"] ;
61 -> 62 ;
63 [label=<gini = 0.0<br/>samples = 1<br/>value = [[0, 1, 0, 0, 0]<br/>[0, 0, 0, 0, 1]]>, fillcolor="#e58139"] ;
61 -> 63 ;
64 [label=<gini = 0.0<br/>samples = 2<br/>value = [[0, 2, 0, 0, 0]<br/>[0, 0, 2, 0, 0]]>, fillcolor="#e58139"] ;
58 -> 64 ;
65 [label=<gini = 0.0<br/>samples = 3<br/>value = [[0, 3, 0, 0, 0]<br/>[0, 0, 0, 3, 0]]>, fillcolor="#e58139"] ;
57 -> 65 ;
66 [label=<x<SUB>2</SUB> &le; 10.33<br/>gini = 0.222<br/>samples = 9<br/>value = [[0, 9, 0, 0, 0]<br/>[0, 0, 0, 3, 6]]>, fillcolor="#eeae7f"] ;
56 -> 66 ;
67 [label=<gini = 0.0<br/>samples = 3<br/>value = [[0, 3, 0, 0, 0]<br/>[0, 0, 0, 0, 3]]>, fillcolor="#e58139"] ;
66 -> 67 ;
68 [label=<x<SUB>2</SUB> &le; 11.42<br/>gini = 0.25<br/>samples = 6<br/>value = [[0, 6, 0, 0, 0]<br/>[0, 0, 0, 3, 3]]>, fillcolor="#efb388"] ;
66 -> 68 ;
69 [label=<gini = 0.0<br/>samples = 2<br/>value = [[0, 2, 0, 0, 0]<br/>[0, 0, 0, 2, 0]]>, fillcolor="#e58139"] ;
68 -> 69 ;
70 [label=<x<SUB>1</SUB> &le; 801.655<br/>gini = 0.188<br/>samples = 4<br/>value = [[0, 4, 0, 0, 0]<br/>[0, 0, 0, 1, 3]]>, fillcolor="#eda774"] ;
68 -> 70 ;
71 [label=<gini = 0.0<br/>samples = 3<br/>value = [[0, 3, 0, 0, 0]<br/>[0, 0, 0, 0, 3]]>, fillcolor="#e58139"] ;
70 -> 71 ;
72 [label=<gini = 0.0<br/>samples = 1<br/>value = [[0, 1, 0, 0, 0]<br/>[0, 0, 0, 1, 0]]>, fillcolor="#e58139"] ;
70 -> 72 ;
73 [label=<x<SUB>2</SUB> &le; 13.72<br/>gini = 0.367<br/>samples = 7<br/>value = [[3, 4, 0, 0, 0]<br/>[0, 0, 1, 6, 0]]>, fillcolor="#f4cbad"] ;
53 -> 73 ;
74 [label=<gini = 0.0<br/>samples = 3<br/>value = [[3, 0, 0, 0, 0]<br/>[0, 0, 0, 3, 0]]>, fillcolor="#e58139"] ;
73 -> 74 ;
75 [label=<x<SUB>0</SUB> &le; 15.0<br/>gini = 0.188<br/>samples = 4<br/>value = [[0, 4, 0, 0, 0]<br/>[0, 0, 1, 3, 0]]>, fillcolor="#eda774"] ;
73 -> 75 ;
76 [label=<gini = 0.0<br/>samples = 1<br/>value = [[0, 1, 0, 0, 0]<br/>[0, 0, 1, 0, 0]]>, fillcolor="#e58139"] ;
75 -> 76 ;
77 [label=<gini = 0.0<br/>samples = 3<br/>value = [[0, 3, 0, 0, 0]<br/>[0, 0, 0, 3, 0]]>, fillcolor="#e58139"] ;
75 -> 77 ;
78 [label=<x<SUB>2</SUB> &le; 15.805<br/>gini = 0.458<br/>samples = 12<br/>value = [[3, 9, 0, 0, 0]<br/>[0, 0, 4, 1, 7]]>, fillcolor="#f8ddca"] ;
52 -> 78 ;
79 [label=<x<SUB>1</SUB> &le; 1370.095<br/>gini = 0.44<br/>samples = 10<br/>value = [[3, 7, 0, 0, 0]<br/>[0, 0, 2, 1, 7]]>, fillcolor="#f7dac4"] ;
78 -> 79 ;
80 [label=<x<SUB>0</SUB> &le; 14.0<br/>gini = 0.531<br/>samples = 7<br/>value = [[3, 4, 0, 0, 0]<br/>[0, 0, 2, 1, 4]]>, fillcolor="#fbece1"] ;
79 -> 80 ;
81 [label=<x<SUB>1</SUB> &le; 407.49<br/>gini = 0.5<br/>samples = 6<br/>value = [[3, 3, 0, 0, 0]<br/>[0, 0, 1, 1, 4]]>, fillcolor="#fae6d8"] ;
80 -> 81 ;
82 [label=<x<SUB>1</SUB> &le; 387.18<br/>gini = 0.5<br/>samples = 4<br/>value = [[1, 3, 0, 0, 0]<br/>[0, 0, 1, 1, 2]]>, fillcolor="#fae6d8"] ;
81 -> 82 ;
83 [label=<gini = 0.0<br/>samples = 1<br/>value = [[1, 0, 0, 0, 0]<br/>[0, 0, 0, 0, 1]]>, fillcolor="#e58139"] ;
82 -> 83 ;
84 [label=<x<SUB>2</SUB> &le; 14.955<br/>gini = 0.333<br/>samples = 3<br/>value = [[0, 3, 0, 0, 0]<br/>[0, 0, 1, 1, 1]]>, fillcolor="#f3c4a3"] ;
82 -> 84 ;
85 [label=<gini = 0.0<br/>samples = 1<br/>value = [[0, 1, 0, 0, 0]<br/>[0, 0, 0, 1, 0]]>, fillcolor="#e58139"] ;
84 -> 85 ;
86 [label=<x<SUB>2</SUB> &le; 15.19<br/>gini = 0.25<br/>samples = 2<br/>value = [[0, 2, 0, 0, 0]<br/>[0, 0, 1, 0, 1]]>, fillcolor="#efb388"] ;
84 -> 86 ;
87 [label=<gini = 0.0<br/>samples = 1<br/>value = [[0, 1, 0, 0, 0]<br/>[0, 0, 1, 0, 0]]>, fillcolor="#e58139"] ;
86 -> 87 ;
88 [label=<gini = 0.0<br/>samples = 1<br/>value = [[0, 1, 0, 0, 0]<br/>[0, 0, 0, 0, 1]]>, fillcolor="#e58139"] ;
86 -> 88 ;
89 [label=<gini = 0.0<br/>samples = 2<br/>value = [[2, 0, 0, 0, 0]<br/>[0, 0, 0, 0, 2]]>, fillcolor="#e58139"] ;
81 -> 89 ;
90 [label=<gini = 0.0<br/>samples = 1<br/>value = [[0, 1, 0, 0, 0]<br/>[0, 0, 1, 0, 0]]>, fillcolor="#e58139"] ;
80 -> 90 ;
91 [label=<gini = 0.0<br/>samples = 3<br/>value = [[0, 3, 0, 0, 0]<br/>[0, 0, 0, 0, 3]]>, fillcolor="#e58139"] ;
79 -> 91 ;
92 [label=<gini = 0.0<br/>samples = 2<br/>value = [[0, 2, 0, 0, 0]<br/>[0, 0, 2, 0, 0]]>, fillcolor="#e58139"] ;
78 -> 92 ;
93 [label=<x<SUB>3</SUB> &le; 1.5<br/>gini = 0.576<br/>samples = 355<br/>value = [[251, 104, 0, 0, 0]<br/>[51, 24, 56, 84, 140]]>, fillcolor="#fdf5f0"] ;
1 -> 93 ;
94 [label=<x<SUB>2</SUB> &le; 34.205<br/>gini = 0.594<br/>samples = 275<br/>value = [[173, 102, 0, 0, 0]<br/>[33, 6, 56, 72, 108]]>, fillcolor="#fef9f5"] ;
93 -> 94 ;
95 [label=<x<SUB>3</SUB> &le; 0.5<br/>gini = 0.476<br/>samples = 49<br/>value = [[36, 13, 0, 0, 0]<br/>[0, 0, 29, 12, 8]]>, fillcolor="#f9e1d0"] ;
94 -> 95 ;
96 [label=<gini = 0.0<br/>samples = 16<br/>value = [[16, 0, 0, 0, 0]<br/>[0, 0, 16, 0, 0]]>, fillcolor="#e58139"] ;
95 -> 96 ;
97 [label=<x<SUB>2</SUB> &le; 21.885<br/>gini = 0.566<br/>samples = 33<br/>value = [[20, 13, 0, 0, 0]<br/>[0, 0, 13, 12, 8]]>, fillcolor="#fdf3ec"] ;
95 -> 97 ;
98 [label=<x<SUB>2</SUB> &le; 19.37<br/>gini = 0.139<br/>samples = 12<br/>value = [[10, 2, 0, 0, 0]<br/>[0, 0, 12, 0, 0]]>, fillcolor="#eb9d65"] ;
97 -> 98 ;
99 [label=<gini = 0.0<br/>samples = 10<br/>value = [[10, 0, 0, 0, 0]<br/>[0, 0, 10, 0, 0]]>, fillcolor="#e58139"] ;
98 -> 99 ;
100 [label=<gini = 0.0<br/>samples = 2<br/>value = [[0, 2, 0, 0, 0]<br/>[0, 0, 2, 0, 0]]>, fillcolor="#e58139"] ;
98 -> 100 ;
101 [label=<x<SUB>4</SUB> &le; 0.5<br/>gini = 0.512<br/>samples = 21<br/>value = [[10, 11, 0, 0, 0]<br/>[0, 0, 1, 12, 8]]>, fillcolor="#fae8db"] ;
97 -> 101 ;
102 [label=<x<SUB>2</SUB> &le; 25.82<br/>gini = 0.488<br/>samples = 11<br/>value = [[8, 3, 0, 0, 0]<br/>[0, 0, 1, 5, 5]]>, fillcolor="#f9e3d4"] ;
101 -> 102 ;
103 [label=<x<SUB>2</SUB> &le; 23.73<br/>gini = 0.5<br/>samples = 2<br/>value = [[1, 1, 0, 0, 0]<br/>[0, 0, 1, 0, 1]]>, fillcolor="#fae6d8"] ;
102 -> 103 ;
104 [label=<gini = 0.0<br/>samples = 1<br/>value = [[1, 0, 0, 0, 0]<br/>[0, 0, 0, 0, 1]]>, fillcolor="#e58139"] ;
103 -> 104 ;
105 [label=<gini = 0.0<br/>samples = 1<br/>value = [[0, 1, 0, 0, 0]<br/>[0, 0, 1, 0, 0]]>, fillcolor="#e58139"] ;
103 -> 105 ;
106 [label=<x<SUB>2</SUB> &le; 31.92<br/>gini = 0.42<br/>samples = 9<br/>value = [[7, 2, 0, 0, 0]<br/>[0, 0, 0, 5, 4]]>, fillcolor="#f6d6be"] ;
102 -> 106 ;
107 [label=<x<SUB>0</SUB> &le; 5.0<br/>gini = 0.444<br/>samples = 6<br/>value = [[4, 2, 0, 0, 0]<br/>[0, 0, 0, 4, 2]]>, fillcolor="#f8dbc6"] ;
106 -> 107 ;
108 [label=<x<SUB>2</SUB> &le; 29.315<br/>gini = 0.4<br/>samples = 5<br/>value = [[3, 2, 0, 0, 0]<br/>[0, 0, 0, 4, 1]]>, fillcolor="#f6d2b8"] ;
107 -> 108 ;
109 [label=<x<SUB>1</SUB> &le; 69.79<br/>gini = 0.222<br/>samples = 3<br/>value = [[2, 1, 0, 0, 0]<br/>[0, 0, 0, 3, 0]]>, fillcolor="#eeae7f"] ;
108 -> 109 ;
110 [label=<gini = 0.0<br/>samples = 2<br/>value = [[2, 0, 0, 0, 0]<br/>[0, 0, 0, 2, 0]]>, fillcolor="#e58139"] ;
109 -> 110 ;
111 [label=<gini = 0.0<br/>samples = 1<br/>value = [[0, 1, 0, 0, 0]<br/>[0, 0, 0, 1, 0]]>, fillcolor="#e58139"] ;
109 -> 111 ;
112 [label=<x<SUB>2</SUB> &le; 30.225<br/>gini = 0.5<br/>samples = 2<br/>value = [[1, 1, 0, 0, 0]<br/>[0, 0, 0, 1, 1]]>, fillcolor="#fae6d8"] ;
108 -> 112 ;
113 [label=<gini = 0.0<br/>samples = 1<br/>value = [[0, 1, 0, 0, 0]<br/>[0, 0, 0, 0, 1]]>, fillcolor="#e58139"] ;
112 -> 113 ;
114 [label=<gini = 0.0<br/>samples = 1<br/>value = [[1, 0, 0, 0, 0]<br/>[0, 0, 0, 1, 0]]>, fillcolor="#e58139"] ;
112 -> 114 ;
115 [label=<gini = 0.0<br/>samples = 1<br/>value = [[1, 0, 0, 0, 0]<br/>[0, 0, 0, 0, 1]]>, fillcolor="#e58139"] ;
107 -> 115 ;
116 [label=<x<SUB>0</SUB> &le; 6.0<br/>gini = 0.222<br/>samples = 3<br/>value = [[3, 0, 0, 0, 0]<br/>[0, 0, 0, 1, 2]]>, fillcolor="#eeae7f"] ;
106 -> 116 ;
117 [label=<gini = 0.0<br/>samples = 2<br/>value = [[2, 0, 0, 0, 0]<br/>[0, 0, 0, 0, 2]]>, fillcolor="#e58139"] ;
116 -> 117 ;
118 [label=<gini = 0.0<br/>samples = 1<br/>value = [[1, 0, 0, 0, 0]<br/>[0, 0, 0, 1, 0]]>, fillcolor="#e58139"] ;
116 -> 118 ;
119 [label=<x<SUB>1</SUB> &le; 33.22<br/>gini = 0.37<br/>samples = 10<br/>value = [[2, 8, 0, 0, 0]<br/>[0, 0, 0, 7, 3]]>, fillcolor="#f4ccae"] ;
101 -> 119 ;
120 [label=<gini = 0.0<br/>samples = 1<br/>value = [[1, 0, 0, 0, 0]<br/>[0, 0, 0, 1, 0]]>, fillcolor="#e58139"] ;
119 -> 120 ;
121 [label=<x<SUB>1</SUB> &le; 123.135<br/>gini = 0.321<br/>samples = 9<br/>value = [[1, 8, 0, 0, 0]<br/>[0, 0, 0, 6, 3]]>, fillcolor="#f2c29f"] ;
119 -> 121 ;
122 [label=<x<SUB>2</SUB> &le; 29.97<br/>gini = 0.24<br/>samples = 5<br/>value = [[0, 5, 0, 0, 0]<br/>[0, 0, 0, 2, 3]]>, fillcolor="#efb185"] ;
121 -> 122 ;
123 [label=<x<SUB>1</SUB> &le; 35.975<br/>gini = 0.222<br/>samples = 3<br/>value = [[0, 3, 0, 0, 0]<br/>[0, 0, 0, 2, 1]]>, fillcolor="#eeae7f"] ;
122 -> 123 ;
124 [label=<gini = 0.0<br/>samples = 1<br/>value = [[0, 1, 0, 0, 0]<br/>[0, 0, 0, 0, 1]]>, fillcolor="#e58139"] ;
123 -> 124 ;
125 [label=<gini = 0.0<br/>samples = 2<br/>value = [[0, 2, 0, 0, 0]<br/>[0, 0, 0, 2, 0]]>, fillcolor="#e58139"] ;
123 -> 125 ;
126 [label=<gini = 0.0<br/>samples = 2<br/>value = [[0, 2, 0, 0, 0]<br/>[0, 0, 0, 0, 2]]>, fillcolor="#e58139"] ;
122 -> 126 ;
127 [label=<x<SUB>1</SUB> &le; 125.535<br/>gini = 0.188<br/>samples = 4<br/>value = [[1, 3, 0, 0, 0]<br/>[0, 0, 0, 4, 0]]>, fillcolor="#eda774"] ;
121 -> 127 ;
128 [label=<gini = 0.0<br/>samples = 1<br/>value = [[1, 0, 0, 0, 0]<br/>[0, 0, 0, 1, 0]]>, fillcolor="#e58139"] ;
127 -> 128 ;
129 [label=<gini = 0.0<br/>samples = 3<br/>value = [[0, 3, 0, 0, 0]<br/>[0, 0, 0, 3, 0]]>, fillcolor="#e58139"] ;
127 -> 129 ;
130 [label=<x<SUB>2</SUB> &le; 87.605<br/>gini = 0.587<br/>samples = 226<br/>value = [[137, 89, 0, 0, 0]<br/>[33, 6, 27, 60, 100]]>, fillcolor="#fdf8f3"] ;
94 -> 130 ;
131 [label=<x<SUB>2</SUB> &le; 73.65<br/>gini = 0.571<br/>samples = 187<br/>value = [[113, 74, 0, 0, 0]<br/>[20, 3, 26, 45, 93]]>, fillcolor="#fdf4ee"] ;
130 -> 131 ;
132 [label=<x<SUB>3</SUB> &le; 0.5<br/>gini = 0.592<br/>samples = 142<br/>value = [[76, 66, 0, 0, 0]<br/>[15, 2, 21, 41, 63]]>, fillcolor="#fef8f5"] ;
131 -> 132 ;
133 [label=<x<SUB>4</SUB> &le; 0.5<br/>gini = 0.55<br/>samples = 44<br/>value = [[15, 29, 0, 0, 0]<br/>[0, 0, 10, 17, 17]]>, fillcolor="#fcf0e7"] ;
132 -> 133 ;
134 [label=<x<SUB>2</SUB> &le; 59.265<br/>gini = 0.449<br/>samples = 16<br/>value = [[13, 3, 0, 0, 0]<br/>[0, 0, 2, 8, 6]]>, fillcolor="#f8dcc7"] ;
133 -> 134 ;
135 [label=<x<SUB>1</SUB> &le; 17.835<br/>gini = 0.312<br/>samples = 8<br/>value = [[7, 1, 0, 0, 0]<br/>[0, 0, 1, 1, 6]]>, fillcolor="#f2c09c"] ;
134 -> 135 ;
136 [label=<gini = 0.0<br/>samples = 1<br/>value = [[0, 1, 0, 0, 0]<br/>[0, 0, 1, 0, 0]]>, fillcolor="#e58139"] ;
135 -> 136 ;
137 [label=<x<SUB>1</SUB> &le; 20.355<br/>gini = 0.122<br/>samples = 7<br/>value = [[7, 0, 0, 0, 0]<br/>[0, 0, 0, 1, 6]]>, fillcolor="#ea9a60"] ;
135 -> 137 ;
138 [label=<gini = 0.0<br/>samples = 1<br/>value = [[1, 0, 0, 0, 0]<br/>[0, 0, 0, 1, 0]]>, fillcolor="#e58139"] ;
137 -> 138 ;
139 [label=<gini = 0.0<br/>samples = 6<br/>value = [[6, 0, 0, 0, 0]<br/>[0, 0, 0, 0, 6]]>, fillcolor="#e58139"] ;
137 -> 139 ;
140 [label=<x<SUB>2</SUB> &le; 68.955<br/>gini = 0.297<br/>samples = 8<br/>value = [[6, 2, 0, 0, 0]<br/>[0, 0, 1, 7, 0]]>, fillcolor="#f1bd97"] ;
134 -> 140 ;
141 [label=<gini = 0.0<br/>samples = 6<br/>value = [[6, 0, 0, 0, 0]<br/>[0, 0, 0, 6, 0]]>, fillcolor="#e58139"] ;
140 -> 141 ;
142 [label=<x<SUB>0</SUB> &le; 1.5<br/>gini = 0.25<br/>samples = 2<br/>value = [[0, 2, 0, 0, 0]<br/>[0, 0, 1, 1, 0]]>, fillcolor="#efb388"] ;
140 -> 142 ;
143 [label=<gini = 0.0<br/>samples = 1<br/>value = [[0, 1, 0, 0, 0]<br/>[0, 0, 0, 1, 0]]>, fillcolor="#e58139"] ;
142 -> 143 ;
144 [label=<gini = 0.0<br/>samples = 1<br/>value = [[0, 1, 0, 0, 0]<br/>[0, 0, 1, 0, 0]]>, fillcolor="#e58139"] ;
142 -> 144 ;
145 [label=<x<SUB>2</SUB> &le; 51.915<br/>gini = 0.397<br/>samples = 28<br/>value = [[2, 26, 0, 0, 0]<br/>[0, 0, 8, 9, 11]]>, fillcolor="#f6d1b7"] ;
133 -> 145 ;
146 [label=<x<SUB>2</SUB> &le; 46.235<br/>gini = 0.291<br/>samples = 17<br/>value = [[0, 17, 0, 0, 0]<br/>[0, 0, 6, 9, 2]]>, fillcolor="#f1bc95"] ;
145 -> 146 ;
147 [label=<gini = 0.0<br/>samples = 3<br/>value = [[0, 3, 0, 0, 0]<br/>[0, 0, 3, 0, 0]]>, fillcolor="#e58139"] ;
146 -> 147 ;
148 [label=<x<SUB>1</SUB> &le; 40.405<br/>gini = 0.26<br/>samples = 14<br/>value = [[0, 14, 0, 0, 0]<br/>[0, 0, 3, 9, 2]]>, fillcolor="#f0b58b"] ;
146 -> 148 ;
149 [label=<x<SUB>2</SUB> &le; 46.91<br/>gini = 0.222<br/>samples = 3<br/>value = [[0, 3, 0, 0, 0]<br/>[0, 0, 0, 1, 2]]>, fillcolor="#eeae7f"] ;
148 -> 149 ;
150 [label=<gini = 0.0<br/>samples = 1<br/>value = [[0, 1, 0, 0, 0]<br/>[0, 0, 0, 1, 0]]>, fillcolor="#e58139"] ;
149 -> 150 ;
151 [label=<gini = 0.0<br/>samples = 2<br/>value = [[0, 2, 0, 0, 0]<br/>[0, 0, 0, 0, 2]]>, fillcolor="#e58139"] ;
149 -> 151 ;
152 [label=<x<SUB>2</SUB> &le; 47.99<br/>gini = 0.198<br/>samples = 11<br/>value = [[0, 11, 0, 0, 0]<br/>[0, 0, 3, 8, 0]]>, fillcolor="#eda978"] ;
148 -> 152 ;
153 [label=<gini = 0.0<br/>samples = 1<br/>value = [[0, 1, 0, 0, 0]<br/>[0, 0, 1, 0, 0]]>, fillcolor="#e58139"] ;
152 -> 153 ;
154 [label=<x<SUB>1</SUB> &le; 197.005<br/>gini = 0.16<br/>samples = 10<br/>value = [[0, 10, 0, 0, 0]<br/>[0, 0, 2, 8, 0]]>, fillcolor="#eca16c"] ;
152 -> 154 ;
155 [label=<gini = 0.0<br/>samples = 5<br/>value = [[0, 5, 0, 0, 0]<br/>[0, 0, 0, 5, 0]]>, fillcolor="#e58139"] ;
154 -> 155 ;
156 [label=<x<SUB>1</SUB> &le; 387.95<br/>gini = 0.24<br/>samples = 5<br/>value = [[0, 5, 0, 0, 0]<br/>[0, 0, 2, 3, 0]]>, fillcolor="#efb185"] ;
154 -> 156 ;
157 [label=<gini = 0.0<br/>samples = 2<br/>value = [[0, 2, 0, 0, 0]<br/>[0, 0, 2, 0, 0]]>, fillcolor="#e58139"] ;
156 -> 157 ;
158 [label=<gini = 0.0<br/>samples = 3<br/>value = [[0, 3, 0, 0, 0]<br/>[0, 0, 0, 3, 0]]>, fillcolor="#e58139"] ;
156 -> 158 ;
159 [label=<x<SUB>0</SUB> &le; 2.5<br/>gini = 0.298<br/>samples = 11<br/>value = [[2, 9, 0, 0, 0]<br/>[0, 0, 2, 0, 9]]>, fillcolor="#f1bd97"] ;
145 -> 159 ;
160 [label=<gini = 0.0<br/>samples = 2<br/>value = [[2, 0, 0, 0, 0]<br/>[0, 0, 0, 0, 2]]>, fillcolor="#e58139"] ;
159 -> 160 ;
161 [label=<x<SUB>2</SUB> &le; 53.855<br/>gini = 0.173<br/>samples = 9<br/>value = [[0, 9, 0, 0, 0]<br/>[0, 0, 2, 0, 7]]>, fillcolor="#eca470"] ;
159 -> 161 ;
162 [label=<x<SUB>2</SUB> &le; 52.635<br/>gini = 0.109<br/>samples = 8<br/>value = [[0, 8, 0, 0, 0]<br/>[0, 0, 1, 0, 7]]>, fillcolor="#ea975c"] ;
161 -> 162 ;
163 [label=<x<SUB>2</SUB> &le; 52.195<br/>gini = 0.25<br/>samples = 2<br/>value = [[0, 2, 0, 0, 0]<br/>[0, 0, 1, 0, 1]]>, fillcolor="#efb388"] ;
162 -> 163 ;
164 [label=<gini = 0.0<br/>samples = 1<br/>value = [[0, 1, 0, 0, 0]<br/>[0, 0, 0, 0, 1]]>, fillcolor="#e58139"] ;
163 -> 164 ;
165 [label=<gini = 0.0<br/>samples = 1<br/>value = [[0, 1, 0, 0, 0]<br/>[0, 0, 1, 0, 0]]>, fillcolor="#e58139"] ;
163 -> 165 ;
166 [label=<gini = 0.0<br/>samples = 6<br/>value = [[0, 6, 0, 0, 0]<br/>[0, 0, 0, 0, 6]]>, fillcolor="#e58139"] ;
162 -> 166 ;
167 [label=<gini = 0.0<br/>samples = 1<br/>value = [[0, 1, 0, 0, 0]<br/>[0, 0, 1, 0, 0]]>, fillcolor="#e58139"] ;
161 -> 167 ;
168 [label=<x<SUB>2</SUB> &le; 52.435<br/>gini = 0.577<br/>samples = 98<br/>value = [[61, 37, 0, 0, 0]<br/>[15, 2, 11, 24, 46]]>, fillcolor="#fdf5f0"] ;
132 -> 168 ;
169 [label=<x<SUB>2</SUB> &le; 40.77<br/>gini = 0.472<br/>samples = 61<br/>value = [[44, 17, 0, 0, 0]<br/>[6, 0, 5, 11, 39]]>, fillcolor="#f9e0cf"] ;
168 -> 169 ;
170 [label=<x<SUB>0</SUB> &le; 2.5<br/>gini = 0.562<br/>samples = 24<br/>value = [[8, 16, 0, 0, 0]<br/>[2, 0, 4, 8, 10]]>, fillcolor="#fcf2eb"] ;
169 -> 170 ;
171 [label=<x<SUB>1</SUB> &le; 26.74<br/>gini = 0.24<br/>samples = 5<br/>value = [[5, 0, 0, 0, 0]<br/>[2, 0, 0, 0, 3]]>, fillcolor="#efb185"] ;
170 -> 171 ;
172 [label=<gini = 0.0<br/>samples = 1<br/>value = [[1, 0, 0, 0, 0]<br/>[1, 0, 0, 0, 0]]>, fillcolor="#e58139"] ;
171 -> 172 ;
173 [label=<x<SUB>4</SUB> &le; 0.5<br/>gini = 0.188<br/>samples = 4<br/>value = [[4, 0, 0, 0, 0]<br/>[1, 0, 0, 0, 3]]>, fillcolor="#eda774"] ;
171 -> 173 ;
174 [label=<x<SUB>1</SUB> &le; 27.375<br/>gini = 0.25<br/>samples = 2<br/>value = [[2, 0, 0, 0, 0]<br/>[1, 0, 0, 0, 1]]>, fillcolor="#efb388"] ;
173 -> 174 ;
175 [label=<gini = 0.0<br/>samples = 1<br/>value = [[1, 0, 0, 0, 0]<br/>[0, 0, 0, 0, 1]]>, fillcolor="#e58139"] ;
174 -> 175 ;
176 [label=<gini = 0.0<br/>samples = 1<br/>value = [[1, 0, 0, 0, 0]<br/>[1, 0, 0, 0, 0]]>, fillcolor="#e58139"] ;
174 -> 176 ;
177 [label=<gini = 0.0<br/>samples = 2<br/>value = [[2, 0, 0, 0, 0]<br/>[0, 0, 0, 0, 2]]>, fillcolor="#e58139"] ;
173 -> 177 ;
178 [label=<x<SUB>2</SUB> &le; 36.08<br/>gini = 0.454<br/>samples = 19<br/>value = [[3, 16, 0, 0, 0]<br/>[0, 0, 4, 8, 7]]>, fillcolor="#f8ddc9"] ;
170 -> 178 ;
179 [label=<x<SUB>4</SUB> &le; 0.5<br/>gini = 0.44<br/>samples = 10<br/>value = [[3, 7, 0, 0, 0]<br/>[0, 0, 1, 7, 2]]>, fillcolor="#f7dac4"] ;
178 -> 179 ;
180 [label=<gini = 0.0<br/>samples = 3<br/>value = [[3, 0, 0, 0, 0]<br/>[0, 0, 0, 3, 0]]>, fillcolor="#e58139"] ;
179 -> 180 ;
181 [label=<x<SUB>2</SUB> &le; 34.8<br/>gini = 0.286<br/>samples = 7<br/>value = [[0, 7, 0, 0, 0]<br/>[0, 0, 1, 4, 2]]>, fillcolor="#f1bb94"] ;
179 -> 181 ;
182 [label=<gini = 0.0<br/>samples = 2<br/>value = [[0, 2, 0, 0, 0]<br/>[0, 0, 0, 0, 2]]>, fillcolor="#e58139"] ;
181 -> 182 ;
183 [label=<x<SUB>1</SUB> &le; 170.28<br/>gini = 0.16<br/>samples = 5<br/>value = [[0, 5, 0, 0, 0]<br/>[0, 0, 1, 4, 0]]>, fillcolor="#eca16c"] ;
181 -> 183 ;
184 [label=<gini = 0.0<br/>samples = 1<br/>value = [[0, 1, 0, 0, 0]<br/>[0, 0, 1, 0, 0]]>, fillcolor="#e58139"] ;
183 -> 184 ;
185 [label=<gini = 0.0<br/>samples = 4<br/>value = [[0, 4, 0, 0, 0]<br/>[0, 0, 0, 4, 0]]>, fillcolor="#e58139"] ;
183 -> 185 ;
186 [label=<x<SUB>2</SUB> &le; 39.32<br/>gini = 0.284<br/>samples = 9<br/>value = [[0, 9, 0, 0, 0]<br/>[0, 0, 3, 1, 5]]>, fillcolor="#f1ba93"] ;
178 -> 186 ;
187 [label=<x<SUB>2</SUB> &le; 36.165<br/>gini = 0.224<br/>samples = 7<br/>value = [[0, 7, 0, 0, 0]<br/>[0, 0, 1, 1, 5]]>, fillcolor="#eeae80"] ;
186 -> 187 ;
188 [label=<gini = 0.0<br/>samples = 1<br/>value = [[0, 1, 0, 0, 0]<br/>[0, 0, 1, 0, 0]]>, fillcolor="#e58139"] ;
187 -> 188 ;
189 [label=<x<SUB>0</SUB> &le; 5.0<br/>gini = 0.139<br/>samples = 6<br/>value = [[0, 6, 0, 0, 0]<br/>[0, 0, 0, 1, 5]]>, fillcolor="#eb9d65"] ;
187 -> 189 ;
190 [label=<x<SUB>2</SUB> &le; 37.74<br/>gini = 0.25<br/>samples = 2<br/>value = [[0, 2, 0, 0, 0]<br/>[0, 0, 0, 1, 1]]>, fillcolor="#efb388"] ;
189 -> 190 ;
191 [label=<gini = 0.0<br/>samples = 1<br/>value = [[0, 1, 0, 0, 0]<br/>[0, 0, 0, 1, 0]]>, fillcolor="#e58139"] ;
190 -> 191 ;
192 [label=<gini = 0.0<br/>samples = 1<br/>value = [[0, 1, 0, 0, 0]<br/>[0, 0, 0, 0, 1]]>, fillcolor="#e58139"] ;
190 -> 192 ;
193 [label=<gini = 0.0<br/>samples = 4<br/>value = [[0, 4, 0, 0, 0]<br/>[0, 0, 0, 0, 4]]>, fillcolor="#e58139"] ;
189 -> 193 ;
194 [label=<gini = 0.0<br/>samples = 2<br/>value = [[0, 2, 0, 0, 0]<br/>[0, 0, 2, 0, 0]]>, fillcolor="#e58139"] ;
186 -> 194 ;
195 [label=<x<SUB>1</SUB> &le; 83.555<br/>gini = 0.21<br/>samples = 37<br/>value = [[36, 1, 0, 0, 0]<br/>[4, 0, 1, 3, 29]]>, fillcolor="#eeab7b"] ;
169 -> 195 ;
196 [label=<x<SUB>2</SUB> &le; 42.17<br/>gini = 0.297<br/>samples = 8<br/>value = [[8, 0, 0, 0, 0]<br/>[4, 0, 0, 1, 3]]>, fillcolor="#f1bd97"] ;
195 -> 196 ;
197 [label=<gini = 0.0<br/>samples = 3<br/>value = [[3, 0, 0, 0, 0]<br/>[0, 0, 0, 0, 3]]>, fillcolor="#e58139"] ;
196 -> 197 ;
198 [label=<x<SUB>2</SUB> &le; 49.395<br/>gini = 0.16<br/>samples = 5<br/>value = [[5, 0, 0, 0, 0]<br/>[4, 0, 0, 1, 0]]>, fillcolor="#eca16c"] ;
196 -> 198 ;
199 [label=<x<SUB>2</SUB> &le; 46.09<br/>gini = 0.25<br/>samples = 2<br/>value = [[2, 0, 0, 0, 0]<br/>[1, 0, 0, 1, 0]]>, fillcolor="#efb388"] ;
198 -> 199 ;
200 [label=<gini = 0.0<br/>samples = 1<br/>value = [[1, 0, 0, 0, 0]<br/>[1, 0, 0, 0, 0]]>, fillcolor="#e58139"] ;
199 -> 200 ;
201 [label=<gini = 0.0<br/>samples = 1<br/>value = [[1, 0, 0, 0, 0]<br/>[0, 0, 0, 1, 0]]>, fillcolor="#e58139"] ;
199 -> 201 ;
202 [label=<gini = 0.0<br/>samples = 3<br/>value = [[3, 0, 0, 0, 0]<br/>[3, 0, 0, 0, 0]]>, fillcolor="#e58139"] ;
198 -> 202 ;
203 [label=<x<SUB>2</SUB> &le; 42.925<br/>gini = 0.128<br/>samples = 29<br/>value = [[28, 1, 0, 0, 0]<br/>[0, 0, 1, 2, 26]]>, fillcolor="#ea9b62"] ;
195 -> 203 ;
204 [label=<gini = 0.0<br/>samples = 1<br/>value = [[0, 1, 0, 0, 0]<br/>[0, 0, 1, 0, 0]]>, fillcolor="#e58139"] ;
203 -> 204 ;
205 [label=<x<SUB>1</SUB> &le; 403.225<br/>gini = 0.066<br/>samples = 28<br/>value = [[28, 0, 0, 0, 0]<br/>[0, 0, 0, 2, 26]]>, fillcolor="#e88e4e"] ;
203 -> 205 ;
206 [label=<gini = 0.0<br/>samples = 17<br/>value = [[17, 0, 0, 0, 0]<br/>[0, 0, 0, 0, 17]]>, fillcolor="#e58139"] ;
205 -> 206 ;
207 [label=<x<SUB>2</SUB> &le; 50.23<br/>gini = 0.149<br/>samples = 11<br/>value = [[11, 0, 0, 0, 0]<br/>[0, 0, 0, 2, 9]]>, fillcolor="#eb9f68"] ;
205 -> 207 ;
208 [label=<x<SUB>2</SUB> &le; 46.015<br/>gini = 0.222<br/>samples = 3<br/>value = [[3, 0, 0, 0, 0]<br/>[0, 0, 0, 2, 1]]>, fillcolor="#eeae7f"] ;
207 -> 208 ;
209 [label=<gini = 0.0<br/>samples = 1<br/>value = [[1, 0, 0, 0, 0]<br/>[0, 0, 0, 0, 1]]>, fillcolor="#e58139"] ;
208 -> 209 ;
210 [label=<gini = 0.0<br/>samples = 2<br/>value = [[2, 0, 0, 0, 0]<br/>[0, 0, 0, 2, 0]]>, fillcolor="#e58139"] ;
208 -> 210 ;
211 [label=<gini = 0.0<br/>samples = 8<br/>value = [[8, 0, 0, 0, 0]<br/>[0, 0, 0, 0, 8]]>, fillcolor="#e58139"] ;
207 -> 211 ;
212 [label=<x<SUB>4</SUB> &le; 0.5<br/>gini = 0.625<br/>samples = 37<br/>value = [[17, 20, 0, 0, 0]<br/>[9, 2, 6, 13, 7]]>, fillcolor="#ffffff"] ;
168 -> 212 ;
213 [label=<x<SUB>2</SUB> &le; 56.62<br/>gini = 0.555<br/>samples = 26<br/>value = [[6, 20, 0, 0, 0]<br/>[4, 1, 6, 8, 7]]>, fillcolor="#fcf1e9"] ;
212 -> 213 ;
214 [label=<x<SUB>2</SUB> &le; 55.015<br/>gini = 0.52<br/>samples = 5<br/>value = [[3, 2, 0, 0, 0]<br/>[3, 0, 1, 1, 0]]>, fillcolor="#fbeade"] ;
213 -> 214 ;
215 [label=<x<SUB>0</SUB> &le; 4.5<br/>gini = 0.25<br/>samples = 2<br/>value = [[0, 2, 0, 0, 0]<br/>[0, 0, 1, 1, 0]]>, fillcolor="#efb388"] ;
214 -> 215 ;
216 [label=<gini = 0.0<br/>samples = 1<br/>value = [[0, 1, 0, 0, 0]<br/>[0, 0, 1, 0, 0]]>, fillcolor="#e58139"] ;
215 -> 216 ;
217 [label=<gini = 0.0<br/>samples = 1<br/>value = [[0, 1, 0, 0, 0]<br/>[0, 0, 0, 1, 0]]>, fillcolor="#e58139"] ;
215 -> 217 ;
218 [label=<gini = 0.0<br/>samples = 3<br/>value = [[3, 0, 0, 0, 0]<br/>[3, 0, 0, 0, 0]]>, fillcolor="#e58139"] ;
214 -> 218 ;
219 [label=<x<SUB>2</SUB> &le; 66.15<br/>gini = 0.481<br/>samples = 21<br/>value = [[3, 18, 0, 0, 0]<br/>[1, 1, 5, 7, 7]]>, fillcolor="#f9e2d1"] ;
213 -> 219 ;
220 [label=<x<SUB>2</SUB> &le; 61.62<br/>gini = 0.359<br/>samples = 16<br/>value = [[1, 15, 0, 0, 0]<br/>[0, 0, 2, 7, 7]]>, fillcolor="#f4caab"] ;
219 -> 220 ;
221 [label=<x<SUB>1</SUB> &le; 1687.84<br/>gini = 0.312<br/>samples = 8<br/>value = [[1, 7, 0, 0, 0]<br/>[0, 0, 1, 6, 1]]>, fillcolor="#f2c09c"] ;
220 -> 221 ;
222 [label=<x<SUB>2</SUB> &le; 58.47<br/>gini = 0.224<br/>samples = 7<br/>value = [[0, 7, 0, 0, 0]<br/>[0, 0, 1, 5, 1]]>, fillcolor="#eeae80"] ;
221 -> 222 ;
223 [label=<x<SUB>0</SUB> &le; 7.0<br/>gini = 0.25<br/>samples = 2<br/>value = [[0, 2, 0, 0, 0]<br/>[0, 0, 1, 0, 1]]>, fillcolor="#efb388"] ;
222 -> 223 ;
224 [label=<gini = 0.0<br/>samples = 1<br/>value = [[0, 1, 0, 0, 0]<br/>[0, 0, 1, 0, 0]]>, fillcolor="#e58139"] ;
223 -> 224 ;
225 [label=<gini = 0.0<br/>samples = 1<br/>value = [[0, 1, 0, 0, 0]<br/>[0, 0, 0, 0, 1]]>, fillcolor="#e58139"] ;
223 -> 225 ;
226 [label=<gini = 0.0<br/>samples = 5<br/>value = [[0, 5, 0, 0, 0]<br/>[0, 0, 0, 5, 0]]>, fillcolor="#e58139"] ;
222 -> 226 ;
227 [label=<gini = 0.0<br/>samples = 1<br/>value = [[1, 0, 0, 0, 0]<br/>[0, 0, 0, 1, 0]]>, fillcolor="#e58139"] ;
221 -> 227 ;
228 [label=<x<SUB>2</SUB> &le; 63.095<br/>gini = 0.203<br/>samples = 8<br/>value = [[0, 8, 0, 0, 0]<br/>[0, 0, 1, 1, 6]]>, fillcolor="#edaa79"] ;
220 -> 228 ;
229 [label=<x<SUB>2</SUB> &le; 62.54<br/>gini = 0.312<br/>samples = 4<br/>value = [[0, 4, 0, 0, 0]<br/>[0, 0, 1, 1, 2]]>, fillcolor="#f2c09c"] ;
228 -> 229 ;
230 [label=<gini = 0.0<br/>samples = 2<br/>value = [[0, 2, 0, 0, 0]<br/>[0, 0, 0, 0, 2]]>, fillcolor="#e58139"] ;
229 -> 230 ;
231 [label=<x<SUB>2</SUB> &le; 62.925<br/>gini = 0.25<br/>samples = 2<br/>value = [[0, 2, 0, 0, 0]<br/>[0, 0, 1, 1, 0]]>, fillcolor="#efb388"] ;
229 -> 231 ;
232 [label=<gini = 0.0<br/>samples = 1<br/>value = [[0, 1, 0, 0, 0]<br/>[0, 0, 0, 1, 0]]>, fillcolor="#e58139"] ;
231 -> 232 ;
233 [label=<gini = 0.0<br/>samples = 1<br/>value = [[0, 1, 0, 0, 0]<br/>[0, 0, 1, 0, 0]]>, fillcolor="#e58139"] ;
231 -> 233 ;
234 [label=<gini = 0.0<br/>samples = 4<br/>value = [[0, 4, 0, 0, 0]<br/>[0, 0, 0, 0, 4]]>, fillcolor="#e58139"] ;
228 -> 234 ;
235 [label=<x<SUB>1</SUB> &le; 283.405<br/>gini = 0.52<br/>samples = 5<br/>value = [[2, 3, 0, 0, 0]<br/>[1, 1, 3, 0, 0]]>, fillcolor="#fbeade"] ;
219 -> 235 ;
236 [label=<x<SUB>1</SUB> &le; 144.98<br/>gini = 0.25<br/>samples = 2<br/>value = [[2, 0, 0, 0, 0]<br/>[1, 1, 0, 0, 0]]>, fillcolor="#efb388"] ;
235 -> 236 ;
237 [label=<gini = 0.0<br/>samples = 1<br/>value = [[1, 0, 0, 0, 0]<br/>[0, 1, 0, 0, 0]]>, fillcolor="#e58139"] ;
236 -> 237 ;
238 [label=<gini = 0.0<br/>samples = 1<br/>value = [[1, 0, 0, 0, 0]<br/>[1, 0, 0, 0, 0]]>, fillcolor="#e58139"] ;
236 -> 238 ;
239 [label=<gini = 0.0<br/>samples = 3<br/>value = [[0, 3, 0, 0, 0]<br/>[0, 0, 3, 0, 0]]>, fillcolor="#e58139"] ;
235 -> 239 ;
240 [label=<x<SUB>0</SUB> &le; 3.5<br/>gini = 0.289<br/>samples = 11<br/>value = [[11, 0, 0, 0, 0]<br/>[5, 1, 0, 5, 0]]>, fillcolor="#f1bb95"] ;
212 -> 240 ;
241 [label=<gini = 0.0<br/>samples = 1<br/>value = [[1, 0, 0, 0, 0]<br/>[0, 1, 0, 0, 0]]>, fillcolor="#e58139"] ;
240 -> 241 ;
242 [label=<x<SUB>1</SUB> &le; 772.125<br/>gini = 0.25<br/>samples = 10<br/>value = [[10, 0, 0, 0, 0]<br/>[5, 0, 0, 5, 0]]>, fillcolor="#efb388"] ;
240 -> 242 ;
243 [label=<x<SUB>2</SUB> &le; 58.485<br/>gini = 0.234<br/>samples = 8<br/>value = [[8, 0, 0, 0, 0]<br/>[5, 0, 0, 3, 0]]>, fillcolor="#efb083"] ;
242 -> 243 ;
244 [label=<x<SUB>2</SUB> &le; 53.94<br/>gini = 0.188<br/>samples = 4<br/>value = [[4, 0, 0, 0, 0]<br/>[1, 0, 0, 3, 0]]>, fillcolor="#eda774"] ;
243 -> 244 ;
245 [label=<gini = 0.0<br/>samples = 1<br/>value = [[1, 0, 0, 0, 0]<br/>[1, 0, 0, 0, 0]]>, fillcolor="#e58139"] ;
244 -> 245 ;
246 [label=<gini = 0.0<br/>samples = 3<br/>value = [[3, 0, 0, 0, 0]<br/>[0, 0, 0, 3, 0]]>, fillcolor="#e58139"] ;
244 -> 246 ;
247 [label=<gini = 0.0<br/>samples = 4<br/>value = [[4, 0, 0, 0, 0]<br/>[4, 0, 0, 0, 0]]>, fillcolor="#e58139"] ;
243 -> 247 ;
248 [label=<gini = 0.0<br/>samples = 2<br/>value = [[2, 0, 0, 0, 0]<br/>[0, 0, 0, 2, 0]]>, fillcolor="#e58139"] ;
242 -> 248 ;
249 [label=<x<SUB>2</SUB> &le; 85.515<br/>gini = 0.407<br/>samples = 45<br/>value = [[37, 8, 0, 0, 0]<br/>[5, 1, 5, 4, 30]]>, fillcolor="#f6d3ba"] ;
131 -> 249 ;
250 [label=<x<SUB>3</SUB> &le; 0.5<br/>gini = 0.32<br/>samples = 39<br/>value = [[35, 4, 0, 0, 0]<br/>[5, 0, 2, 4, 28]]>, fillcolor="#f2c19e"] ;
249 -> 250 ;
251 [label=<x<SUB>1</SUB> &le; 12.68<br/>gini = 0.287<br/>samples = 36<br/>value = [[32, 4, 0, 0, 0]<br/>[2, 0, 2, 4, 28]]>, fillcolor="#f1bb94"] ;
250 -> 251 ;
252 [label=<x<SUB>1</SUB> &le; 12.19<br/>gini = 0.222<br/>samples = 3<br/>value = [[3, 0, 0, 0, 0]<br/>[2, 0, 0, 1, 0]]>, fillcolor="#eeae7f"] ;
251 -> 252 ;
253 [label=<gini = 0.0<br/>samples = 2<br/>value = [[2, 0, 0, 0, 0]<br/>[2, 0, 0, 0, 0]]>, fillcolor="#e58139"] ;
252 -> 253 ;
254 [label=<gini = 0.0<br/>samples = 1<br/>value = [[1, 0, 0, 0, 0]<br/>[0, 0, 0, 1, 0]]>, fillcolor="#e58139"] ;
252 -> 254 ;
255 [label=<x<SUB>1</SUB> &le; 24.625<br/>gini = 0.241<br/>samples = 33<br/>value = [[29, 4, 0, 0, 0]<br/>[0, 0, 2, 3, 28]]>, fillcolor="#efb285"] ;
251 -> 255 ;
256 [label=<x<SUB>2</SUB> &le; 74.875<br/>gini = 0.444<br/>samples = 3<br/>value = [[1, 2, 0, 0, 0]<br/>[0, 0, 0, 1, 2]]>, fillcolor="#f8dbc6"] ;
255 -> 256 ;
257 [label=<gini = 0.0<br/>samples = 1<br/>value = [[1, 0, 0, 0, 0]<br/>[0, 0, 0, 0, 1]]>, fillcolor="#e58139"] ;
256 -> 257 ;
258 [label=<x<SUB>2</SUB> &le; 79.695<br/>gini = 0.25<br/>samples = 2<br/>value = [[0, 2, 0, 0, 0]<br/>[0, 0, 0, 1, 1]]>, fillcolor="#efb388"] ;
256 -> 258 ;
259 [label=<gini = 0.0<br/>samples = 1<br/>value = [[0, 1, 0, 0, 0]<br/>[0, 0, 0, 0, 1]]>, fillcolor="#e58139"] ;
258 -> 259 ;
260 [label=<gini = 0.0<br/>samples = 1<br/>value = [[0, 1, 0, 0, 0]<br/>[0, 0, 0, 1, 0]]>, fillcolor="#e58139"] ;
258 -> 260 ;
261 [label=<x<SUB>4</SUB> &le; 0.5<br/>gini = 0.182<br/>samples = 30<br/>value = [[28, 2, 0, 0, 0]<br/>[0, 0, 2, 2, 26]]>, fillcolor="#eda673"] ;
255 -> 261 ;
262 [label=<x<SUB>2</SUB> &le; 84.105<br/>gini = 0.301<br/>samples = 14<br/>value = [[12, 2, 0, 0, 0]<br/>[0, 0, 2, 1, 11]]>, fillcolor="#f2be98"] ;
261 -> 262 ;
263 [label=<x<SUB>2</SUB> &le; 83.63<br/>gini = 0.42<br/>samples = 9<br/>value = [[7, 2, 0, 0, 0]<br/>[0, 0, 2, 1, 6]]>, fillcolor="#f6d6be"] ;
262 -> 263 ;
264 [label=<x<SUB>1</SUB> &le; 609.21<br/>gini = 0.312<br/>samples = 8<br/>value = [[7, 1, 0, 0, 0]<br/>[0, 0, 1, 1, 6]]>, fillcolor="#f2c09c"] ;
263 -> 264 ;
265 [label=<x<SUB>2</SUB> &le; 78.595<br/>gini = 0.139<br/>samples = 6<br/>value = [[6, 0, 0, 0, 0]<br/>[0, 0, 0, 1, 5]]>, fillcolor="#eb9d65"] ;
264 -> 265 ;
266 [label=<x<SUB>1</SUB> &le; 91.28<br/>gini = 0.25<br/>samples = 2<br/>value = [[2, 0, 0, 0, 0]<br/>[0, 0, 0, 1, 1]]>, fillcolor="#efb388"] ;
265 -> 266 ;
267 [label=<gini = 0.0<br/>samples = 1<br/>value = [[1, 0, 0, 0, 0]<br/>[0, 0, 0, 1, 0]]>, fillcolor="#e58139"] ;
266 -> 267 ;
268 [label=<gini = 0.0<br/>samples = 1<br/>value = [[1, 0, 0, 0, 0]<br/>[0, 0, 0, 0, 1]]>, fillcolor="#e58139"] ;
266 -> 268 ;
269 [label=<gini = 0.0<br/>samples = 4<br/>value = [[4, 0, 0, 0, 0]<br/>[0, 0, 0, 0, 4]]>, fillcolor="#e58139"] ;
265 -> 269 ;
270 [label=<x<SUB>1</SUB> &le; 646.645<br/>gini = 0.5<br/>samples = 2<br/>value = [[1, 1, 0, 0, 0]<br/>[0, 0, 1, 0, 1]]>, fillcolor="#fae6d8"] ;
264 -> 270 ;
271 [label=<gini = 0.0<br/>samples = 1<br/>value = [[0, 1, 0, 0, 0]<br/>[0, 0, 1, 0, 0]]>, fillcolor="#e58139"] ;
270 -> 271 ;
272 [label=<gini = 0.0<br/>samples = 1<br/>value = [[1, 0, 0, 0, 0]<br/>[0, 0, 0, 0, 1]]>, fillcolor="#e58139"] ;
270 -> 272 ;
273 [label=<gini = 0.0<br/>samples = 1<br/>value = [[0, 1, 0, 0, 0]<br/>[0, 0, 1, 0, 0]]>, fillcolor="#e58139"] ;
263 -> 273 ;
274 [label=<gini = 0.0<br/>samples = 5<br/>value = [[5, 0, 0, 0, 0]<br/>[0, 0, 0, 0, 5]]>, fillcolor="#e58139"] ;
262 -> 274 ;
275 [label=<x<SUB>2</SUB> &le; 81.4<br/>gini = 0.059<br/>samples = 16<br/>value = [[16, 0, 0, 0, 0]<br/>[0, 0, 0, 1, 15]]>, fillcolor="#e78d4c"] ;
261 -> 275 ;
276 [label=<x<SUB>2</SUB> &le; 80.805<br/>gini = 0.16<br/>samples = 5<br/>value = [[5, 0, 0, 0, 0]<br/>[0, 0, 0, 1, 4]]>, fillcolor="#eca16c"] ;
275 -> 276 ;
277 [label=<gini = 0.0<br/>samples = 4<br/>value = [[4, 0, 0, 0, 0]<br/>[0, 0, 0, 0, 4]]>, fillcolor="#e58139"] ;
276 -> 277 ;
278 [label=<gini = 0.0<br/>samples = 1<br/>value = [[1, 0, 0, 0, 0]<br/>[0, 0, 0, 1, 0]]>, fillcolor="#e58139"] ;
276 -> 278 ;
279 [label=<gini = 0.0<br/>samples = 11<br/>value = [[11, 0, 0, 0, 0]<br/>[0, 0, 0, 0, 11]]>, fillcolor="#e58139"] ;
275 -> 279 ;
280 [label=<gini = 0.0<br/>samples = 3<br/>value = [[3, 0, 0, 0, 0]<br/>[3, 0, 0, 0, 0]]>, fillcolor="#e58139"] ;
250 -> 280 ;
281 [label=<x<SUB>4</SUB> &le; 0.5<br/>gini = 0.528<br/>samples = 6<br/>value = [[2, 4, 0, 0, 0]<br/>[0, 1, 3, 0, 2]]>, fillcolor="#fbebe0"] ;
249 -> 281 ;
282 [label=<x<SUB>0</SUB> &le; 3.0<br/>gini = 0.188<br/>samples = 4<br/>value = [[0, 4, 0, 0, 0]<br/>[0, 0, 3, 0, 1]]>, fillcolor="#eda774"] ;
281 -> 282 ;
283 [label=<gini = 0.0<br/>samples = 1<br/>value = [[0, 1, 0, 0, 0]<br/>[0, 0, 0, 0, 1]]>, fillcolor="#e58139"] ;
282 -> 283 ;
284 [label=<gini = 0.0<br/>samples = 3<br/>value = [[0, 3, 0, 0, 0]<br/>[0, 0, 3, 0, 0]]>, fillcolor="#e58139"] ;
282 -> 284 ;
285 [label=<x<SUB>1</SUB> &le; 69.79<br/>gini = 0.25<br/>samples = 2<br/>value = [[2, 0, 0, 0, 0]<br/>[0, 1, 0, 0, 1]]>, fillcolor="#efb388"] ;
281 -> 285 ;
286 [label=<gini = 0.0<br/>samples = 1<br/>value = [[1, 0, 0, 0, 0]<br/>[0, 1, 0, 0, 0]]>, fillcolor="#e58139"] ;
285 -> 286 ;
287 [label=<gini = 0.0<br/>samples = 1<br/>value = [[1, 0, 0, 0, 0]<br/>[0, 0, 0, 0, 1]]>, fillcolor="#e58139"] ;
285 -> 287 ;
288 [label=<x<SUB>4</SUB> &le; 0.5<br/>gini = 0.588<br/>samples = 39<br/>value = [[24, 15, 0, 0, 0]<br/>[13, 3, 1, 15, 7]]>, fillcolor="#fdf8f3"] ;
130 -> 288 ;
289 [label=<x<SUB>3</SUB> &le; 0.5<br/>gini = 0.601<br/>samples = 24<br/>value = [[9, 15, 0, 0, 0]<br/>[6, 2, 1, 8, 7]]>, fillcolor="#fefaf7"] ;
288 -> 289 ;
290 [label=<x<SUB>1</SUB> &le; 992.43<br/>gini = 0.562<br/>samples = 22<br/>value = [[7, 15, 0, 0, 0]<br/>[6, 0, 1, 8, 7]]>, fillcolor="#fcf2eb"] ;
289 -> 290 ;
291 [label=<x<SUB>2</SUB> &le; 102.85<br/>gini = 0.532<br/>samples = 20<br/>value = [[5, 15, 0, 0, 0]<br/>[5, 0, 1, 7, 7]]>, fillcolor="#fbece2"] ;
290 -> 291 ;
292 [label=<x<SUB>1</SUB> &le; 30.58<br/>gini = 0.495<br/>samples = 14<br/>value = [[3, 11, 0, 0, 0]<br/>[3, 0, 1, 7, 3]]>, fillcolor="#fae5d6"] ;
291 -> 292 ;
293 [label=<gini = 0.0<br/>samples = 1<br/>value = [[1, 0, 0, 0, 0]<br/>[1, 0, 0, 0, 0]]>, fillcolor="#e58139"] ;
292 -> 293 ;
294 [label=<x<SUB>1</SUB> &le; 200.985<br/>gini = 0.444<br/>samples = 13<br/>value = [[2, 11, 0, 0, 0]<br/>[2, 0, 1, 7, 3]]>, fillcolor="#f7dbc6"] ;
292 -> 294 ;
295 [label=<x<SUB>1</SUB> &le; 41.49<br/>gini = 0.234<br/>samples = 8<br/>value = [[0, 8, 0, 0, 0]<br/>[0, 0, 0, 5, 3]]>, fillcolor="#efb083"] ;
294 -> 295 ;
296 [label=<gini = 0.0<br/>samples = 1<br/>value = [[0, 1, 0, 0, 0]<br/>[0, 0, 0, 0, 1]]>, fillcolor="#e58139"] ;
295 -> 296 ;
297 [label=<x<SUB>2</SUB> &le; 100.435<br/>gini = 0.204<br/>samples = 7<br/>value = [[0, 7, 0, 0, 0]<br/>[0, 0, 0, 5, 2]]>, fillcolor="#edaa7a"] ;
295 -> 297 ;
298 [label=<x<SUB>2</SUB> &le; 94.285<br/>gini = 0.139<br/>samples = 6<br/>value = [[0, 6, 0, 0, 0]<br/>[0, 0, 0, 5, 1]]>, fillcolor="#eb9d65"] ;
297 -> 298 ;
299 [label=<x<SUB>1</SUB> &le; 109.51<br/>gini = 0.25<br/>samples = 2<br/>value = [[0, 2, 0, 0, 0]<br/>[0, 0, 0, 1, 1]]>, fillcolor="#efb388"] ;
298 -> 299 ;
300 [label=<gini = 0.0<br/>samples = 1<br/>value = [[0, 1, 0, 0, 0]<br/>[0, 0, 0, 0, 1]]>, fillcolor="#e58139"] ;
299 -> 300 ;
301 [label=<gini = 0.0<br/>samples = 1<br/>value = [[0, 1, 0, 0, 0]<br/>[0, 0, 0, 1, 0]]>, fillcolor="#e58139"] ;
299 -> 301 ;
302 [label=<gini = 0.0<br/>samples = 4<br/>value = [[0, 4, 0, 0, 0]<br/>[0, 0, 0, 4, 0]]>, fillcolor="#e58139"] ;
298 -> 302 ;
303 [label=<gini = 0.0<br/>samples = 1<br/>value = [[0, 1, 0, 0, 0]<br/>[0, 0, 0, 0, 1]]>, fillcolor="#e58139"] ;
297 -> 303 ;
304 [label=<x<SUB>2</SUB> &le; 101.71<br/>gini = 0.56<br/>samples = 5<br/>value = [[2, 3, 0, 0, 0]<br/>[2, 0, 1, 2, 0]]>, fillcolor="#fcf2eb"] ;
294 -> 304 ;
305 [label=<x<SUB>2</SUB> &le; 93.675<br/>gini = 0.444<br/>samples = 3<br/>value = [[2, 1, 0, 0, 0]<br/>[2, 0, 1, 0, 0]]>, fillcolor="#f8dbc6"] ;
304 -> 305 ;
306 [label=<gini = 0.0<br/>samples = 1<br/>value = [[0, 1, 0, 0, 0]<br/>[0, 0, 1, 0, 0]]>, fillcolor="#e58139"] ;
305 -> 306 ;
307 [label=<gini = 0.0<br/>samples = 2<br/>value = [[2, 0, 0, 0, 0]<br/>[2, 0, 0, 0, 0]]>, fillcolor="#e58139"] ;
305 -> 307 ;
308 [label=<gini = 0.0<br/>samples = 2<br/>value = [[0, 2, 0, 0, 0]<br/>[0, 0, 0, 2, 0]]>, fillcolor="#e58139"] ;
304 -> 308 ;
309 [label=<x<SUB>1</SUB> &le; 74.955<br/>gini = 0.444<br/>samples = 6<br/>value = [[2, 4, 0, 0, 0]<br/>[2, 0, 0, 0, 4]]>, fillcolor="#f8dbc6"] ;
291 -> 309 ;
310 [label=<gini = 0.0<br/>samples = 2<br/>value = [[2, 0, 0, 0, 0]<br/>[2, 0, 0, 0, 0]]>, fillcolor="#e58139"] ;
309 -> 310 ;
311 [label=<gini = 0.0<br/>samples = 4<br/>value = [[0, 4, 0, 0, 0]<br/>[0, 0, 0, 0, 4]]>, fillcolor="#e58139"] ;
309 -> 311 ;
312 [label=<x<SUB>1</SUB> &le; 1053.77<br/>gini = 0.25<br/>samples = 2<br/>value = [[2, 0, 0, 0, 0]<br/>[1, 0, 0, 1, 0]]>, fillcolor="#efb388"] ;
290 -> 312 ;
313 [label=<gini = 0.0<br/>samples = 1<br/>value = [[1, 0, 0, 0, 0]<br/>[1, 0, 0, 0, 0]]>, fillcolor="#e58139"] ;
312 -> 313 ;
314 [label=<gini = 0.0<br/>samples = 1<br/>value = [[1, 0, 0, 0, 0]<br/>[0, 0, 0, 1, 0]]>, fillcolor="#e58139"] ;
312 -> 314 ;
315 [label=<gini = 0.0<br/>samples = 2<br/>value = [[2, 0, 0, 0, 0]<br/>[0, 2, 0, 0, 0]]>, fillcolor="#e58139"] ;
289 -> 315 ;
316 [label=<x<SUB>2</SUB> &le; 96.58<br/>gini = 0.28<br/>samples = 15<br/>value = [[15, 0, 0, 0, 0]<br/>[7, 1, 0, 7, 0]]>, fillcolor="#f1b992"] ;
288 -> 316 ;
317 [label=<gini = 0.0<br/>samples = 4<br/>value = [[4, 0, 0, 0, 0]<br/>[0, 0, 0, 4, 0]]>, fillcolor="#e58139"] ;
316 -> 317 ;
318 [label=<x<SUB>3</SUB> &le; 0.5<br/>gini = 0.256<br/>samples = 11<br/>value = [[11, 0, 0, 0, 0]<br/>[7, 1, 0, 3, 0]]>, fillcolor="#f0b58a"] ;
316 -> 318 ;
319 [label=<x<SUB>1</SUB> &le; 97.925<br/>gini = 0.21<br/>samples = 10<br/>value = [[10, 0, 0, 0, 0]<br/>[7, 0, 0, 3, 0]]>, fillcolor="#eeab7c"] ;
318 -> 319 ;
320 [label=<x<SUB>1</SUB> &le; 59.48<br/>gini = 0.25<br/>samples = 6<br/>value = [[6, 0, 0, 0, 0]<br/>[3, 0, 0, 3, 0]]>, fillcolor="#efb388"] ;
319 -> 320 ;
321 [label=<gini = 0.0<br/>samples = 3<br/>value = [[3, 0, 0, 0, 0]<br/>[3, 0, 0, 0, 0]]>, fillcolor="#e58139"] ;
320 -> 321 ;
322 [label=<gini = 0.0<br/>samples = 3<br/>value = [[3, 0, 0, 0, 0]<br/>[0, 0, 0, 3, 0]]>, fillcolor="#e58139"] ;
320 -> 322 ;
323 [label=<gini = 0.0<br/>samples = 4<br/>value = [[4, 0, 0, 0, 0]<br/>[4, 0, 0, 0, 0]]>, fillcolor="#e58139"] ;
319 -> 323 ;
324 [label=<gini = 0.0<br/>samples = 1<br/>value = [[1, 0, 0, 0, 0]<br/>[0, 1, 0, 0, 0]]>, fillcolor="#e58139"] ;
318 -> 324 ;
325 [label=<x<SUB>2</SUB> &le; 21.08<br/>gini = 0.382<br/>samples = 80<br/>value = [[78, 2, 0, 0, 0]<br/>[18, 18, 0, 12, 32]]>, fillcolor="#f5ceb2"] ;
93 -> 325 ;
326 [label=<x<SUB>2</SUB> &le; 17.59<br/>gini = 0.232<br/>samples = 42<br/>value = [[40, 2, 0, 0, 0]<br/>[1, 0, 0, 9, 32]]>, fillcolor="#efb083"] ;
325 -> 326 ;
327 [label=<x<SUB>1</SUB> &le; 464.06<br/>gini = 0.444<br/>samples = 3<br/>value = [[2, 1, 0, 0, 0]<br/>[0, 0, 0, 2, 1]]>, fillcolor="#f8dbc6"] ;
326 -> 327 ;
328 [label=<gini = 0.0<br/>samples = 1<br/>value = [[0, 1, 0, 0, 0]<br/>[0, 0, 0, 1, 0]]>, fillcolor="#e58139"] ;
327 -> 328 ;
329 [label=<x<SUB>1</SUB> &le; 822.42<br/>gini = 0.25<br/>samples = 2<br/>value = [[2, 0, 0, 0, 0]<br/>[0, 0, 0, 1, 1]]>, fillcolor="#efb388"] ;
327 -> 329 ;
330 [label=<gini = 0.0<br/>samples = 1<br/>value = [[1, 0, 0, 0, 0]<br/>[0, 0, 0, 1, 0]]>, fillcolor="#e58139"] ;
329 -> 330 ;
331 [label=<gini = 0.0<br/>samples = 1<br/>value = [[1, 0, 0, 0, 0]<br/>[0, 0, 0, 0, 1]]>, fillcolor="#e58139"] ;
329 -> 331 ;
332 [label=<x<SUB>2</SUB> &le; 18.5<br/>gini = 0.193<br/>samples = 39<br/>value = [[38, 1, 0, 0, 0]<br/>[1, 0, 0, 7, 31]]>, fillcolor="#eda876"] ;
326 -> 332 ;
333 [label=<x<SUB>1</SUB> &le; 492.975<br/>gini = 0.062<br/>samples = 15<br/>value = [[14, 1, 0, 0, 0]<br/>[0, 0, 0, 0, 15]]>, fillcolor="#e88e4d"] ;
332 -> 333 ;
334 [label=<x<SUB>0</SUB> &le; 4.5<br/>gini = 0.188<br/>samples = 4<br/>value = [[3, 1, 0, 0, 0]<br/>[0, 0, 0, 0, 4]]>, fillcolor="#eda774"] ;
333 -> 334 ;
335 [label=<gini = 0.0<br/>samples = 3<br/>value = [[3, 0, 0, 0, 0]<br/>[0, 0, 0, 0, 3]]>, fillcolor="#e58139"] ;
334 -> 335 ;
336 [label=<gini = 0.0<br/>samples = 1<br/>value = [[0, 1, 0, 0, 0]<br/>[0, 0, 0, 0, 1]]>, fillcolor="#e58139"] ;
334 -> 336 ;
337 [label=<gini = 0.0<br/>samples = 11<br/>value = [[11, 0, 0, 0, 0]<br/>[0, 0, 0, 0, 11]]>, fillcolor="#e58139"] ;
333 -> 337 ;
338 [label=<x<SUB>2</SUB> &le; 18.6<br/>gini = 0.234<br/>samples = 24<br/>value = [[24, 0, 0, 0, 0]<br/>[1, 0, 0, 7, 16]]>, fillcolor="#efb083"] ;
332 -> 338 ;
339 [label=<gini = 0.0<br/>samples = 3<br/>value = [[3, 0, 0, 0, 0]<br/>[0, 0, 0, 3, 0]]>, fillcolor="#e58139"] ;
338 -> 339 ;
340 [label=<x<SUB>1</SUB> &le; 1819.985<br/>gini = 0.19<br/>samples = 21<br/>value = [[21, 0, 0, 0, 0]<br/>[1, 0, 0, 4, 16]]>, fillcolor="#eda775"] ;
338 -> 340 ;
341 [label=<x<SUB>1</SUB> &le; 100.685<br/>gini = 0.139<br/>samples = 19<br/>value = [[19, 0, 0, 0, 0]<br/>[1, 0, 0, 2, 16]]>, fillcolor="#eb9d65"] ;
340 -> 341 ;
342 [label=<x<SUB>2</SUB> &le; 19.465<br/>gini = 0.25<br/>samples = 2<br/>value = [[2, 0, 0, 0, 0]<br/>[1, 0, 0, 0, 1]]>, fillcolor="#efb388"] ;
341 -> 342 ;
343 [label=<gini = 0.0<br/>samples = 1<br/>value = [[1, 0, 0, 0, 0]<br/>[0, 0, 0, 0, 1]]>, fillcolor="#e58139"] ;
342 -> 343 ;
344 [label=<gini = 0.0<br/>samples = 1<br/>value = [[1, 0, 0, 0, 0]<br/>[1, 0, 0, 0, 0]]>, fillcolor="#e58139"] ;
342 -> 344 ;
345 [label=<x<SUB>1</SUB> &le; 403.61<br/>gini = 0.104<br/>samples = 17<br/>value = [[17, 0, 0, 0, 0]<br/>[0, 0, 0, 2, 15]]>, fillcolor="#e9965a"] ;
341 -> 345 ;
346 [label=<gini = 0.0<br/>samples = 10<br/>value = [[10, 0, 0, 0, 0]<br/>[0, 0, 0, 0, 10]]>, fillcolor="#e58139"] ;
345 -> 346 ;
347 [label=<x<SUB>1</SUB> &le; 420.78<br/>gini = 0.204<br/>samples = 7<br/>value = [[7, 0, 0, 0, 0]<br/>[0, 0, 0, 2, 5]]>, fillcolor="#edaa7a"] ;
345 -> 347 ;
348 [label=<gini = 0.0<br/>samples = 1<br/>value = [[1, 0, 0, 0, 0]<br/>[0, 0, 0, 1, 0]]>, fillcolor="#e58139"] ;
347 -> 348 ;
349 [label=<x<SUB>2</SUB> &le; 19.895<br/>gini = 0.139<br/>samples = 6<br/>value = [[6, 0, 0, 0, 0]<br/>[0, 0, 0, 1, 5]]>, fillcolor="#eb9d65"] ;
347 -> 349 ;
350 [label=<gini = 0.0<br/>samples = 4<br/>value = [[4, 0, 0, 0, 0]<br/>[0, 0, 0, 0, 4]]>, fillcolor="#e58139"] ;
349 -> 350 ;
351 [label=<x<SUB>1</SUB> &le; 742.57<br/>gini = 0.25<br/>samples = 2<br/>value = [[2, 0, 0, 0, 0]<br/>[0, 0, 0, 1, 1]]>, fillcolor="#efb388"] ;
349 -> 351 ;
352 [label=<gini = 0.0<br/>samples = 1<br/>value = [[1, 0, 0, 0, 0]<br/>[0, 0, 0, 0, 1]]>, fillcolor="#e58139"] ;
351 -> 352 ;
353 [label=<gini = 0.0<br/>samples = 1<br/>value = [[1, 0, 0, 0, 0]<br/>[0, 0, 0, 1, 0]]>, fillcolor="#e58139"] ;
351 -> 353 ;
354 [label=<gini = 0.0<br/>samples = 2<br/>value = [[2, 0, 0, 0, 0]<br/>[0, 0, 0, 2, 0]]>, fillcolor="#e58139"] ;
340 -> 354 ;
355 [label=<x<SUB>2</SUB> &le; 34.63<br/>gini = 0.285<br/>samples = 38<br/>value = [[38, 0, 0, 0, 0]<br/>[17, 18, 0, 3, 0]]>, fillcolor="#f1ba93"] ;
325 -> 355 ;
356 [label=<x<SUB>2</SUB> &le; 25.575<br/>gini = 0.128<br/>samples = 20<br/>value = [[20, 0, 0, 0, 0]<br/>[17, 0, 0, 3, 0]]>, fillcolor="#ea9b61"] ;
355 -> 356 ;
357 [label=<x<SUB>1</SUB> &le; 2225.95<br/>gini = 0.24<br/>samples = 5<br/>value = [[5, 0, 0, 0, 0]<br/>[2, 0, 0, 3, 0]]>, fillcolor="#efb185"] ;
356 -> 357 ;
358 [label=<x<SUB>2</SUB> &le; 22.79<br/>gini = 0.188<br/>samples = 4<br/>value = [[4, 0, 0, 0, 0]<br/>[1, 0, 0, 3, 0]]>, fillcolor="#eda774"] ;
357 -> 358 ;
359 [label=<gini = 0.0<br/>samples = 1<br/>value = [[1, 0, 0, 0, 0]<br/>[1, 0, 0, 0, 0]]>, fillcolor="#e58139"] ;
358 -> 359 ;
360 [label=<gini = 0.0<br/>samples = 3<br/>value = [[3, 0, 0, 0, 0]<br/>[0, 0, 0, 3, 0]]>, fillcolor="#e58139"] ;
358 -> 360 ;
361 [label=<gini = 0.0<br/>samples = 1<br/>value = [[1, 0, 0, 0, 0]<br/>[1, 0, 0, 0, 0]]>, fillcolor="#e58139"] ;
357 -> 361 ;
362 [label=<gini = 0.0<br/>samples = 15<br/>value = [[15, 0, 0, 0, 0]<br/>[15, 0, 0, 0, 0]]>, fillcolor="#e58139"] ;
356 -> 362 ;
363 [label=<gini = 0.0<br/>samples = 18<br/>value = [[18, 0, 0, 0, 0]<br/>[0, 18, 0, 0, 0]]>, fillcolor="#e58139"] ;
355 -> 363 ;
364 [label=<x<SUB>2</SUB> &le; 114.865<br/>gini = 0.083<br/>samples = 33<br/>value = [[33, 0, 0, 0, 0]<br/>[3, 30, 0, 0, 0]]>, fillcolor="#e89253"] ;
0 -> 364 [labeldistance=2.5, labelangle=-45, headlabel="False"] ;
365 [label=<x<SUB>1</SUB> &le; 62.67<br/>gini = 0.25<br/>samples = 4<br/>value = [[4, 0, 0, 0, 0]<br/>[2, 2, 0, 0, 0]]>, fillcolor="#efb388"] ;
364 -> 365 ;
366 [label=<gini = 0.0<br/>samples = 2<br/>value = [[2, 0, 0, 0, 0]<br/>[0, 2, 0, 0, 0]]>, fillcolor="#e58139"] ;
365 -> 366 ;
367 [label=<gini = 0.0<br/>samples = 2<br/>value = [[2, 0, 0, 0, 0]<br/>[2, 0, 0, 0, 0]]>, fillcolor="#e58139"] ;
365 -> 367 ;
368 [label=<x<SUB>2</SUB> &le; 116.725<br/>gini = 0.033<br/>samples = 29<br/>value = [[29, 0, 0, 0, 0]<br/>[1, 28, 0, 0, 0]]>, fillcolor="#e68844"] ;
364 -> 368 ;
369 [label=<x<SUB>3</SUB> &le; 0.5<br/>gini = 0.16<br/>samples = 5<br/>value = [[5, 0, 0, 0, 0]<br/>[1, 4, 0, 0, 0]]>, fillcolor="#eca16c"] ;
368 -> 369 ;
370 [label=<gini = 0.0<br/>samples = 1<br/>value = [[1, 0, 0, 0, 0]<br/>[1, 0, 0, 0, 0]]>, fillcolor="#e58139"] ;
369 -> 370 ;
371 [label=<gini = 0.0<br/>samples = 4<br/>value = [[4, 0, 0, 0, 0]<br/>[0, 4, 0, 0, 0]]>, fillcolor="#e58139"] ;
369 -> 371 ;
372 [label=<gini = 0.0<br/>samples = 24<br/>value = [[24, 0, 0, 0, 0]<br/>[0, 24, 0, 0, 0]]>, fillcolor="#e58139"] ;
368 -> 372 ;
}